#include "edgeAI_const.h"
const real_t dif_inv_in[] = {
1.1764705882352942,
0.3921568627450981,
0.15151515151515152,

};
const real_t low_in[] = {
0.15,
-1.25,
-3.3,

};
const real_t low_out[] = {
-10.0,

};
const real_t dif_out[] = {
20.0,

};
const real_t kernel_1[] = {
-0.004846628394379121, 0.0021012358053116046, -0.0013356696687995666,
0.698873223943566, 0.19367092936578842, 0.23679215106856305,
-1.6675102792299186, 1.1043688685472526, -0.3861298558617259,
0.7784443988178485, -0.7089165429043572, -1.0985208224845464,
1.5314507087509373, 0.7301246910288286, 0.14210328118629237,
2.1454763059023776, 0.025866985188968496, -0.6591287181942306,
-0.48352865569055764, 0.8888052562062071, -1.0625457349029557,
-0.304147331891953, 0.8093286808527884, 1.0560382812201854,
-1.0849789873520788, -1.4283306115323062, 0.9123184826067774,
2.144514736860742, -0.046345168262708764, 1.6950830562494335,

};
const real_t bias_1[] = {
-0.0011329297850162815,
-0.38205765097732847,
-0.07042787456743324,
0.6944447181976583,
-0.7130355545066172,
-0.24681652926255368,
0.03249276881570536,
-0.8291879804983228,
-0.002758306153206126,
-0.4543970861554217,

};
const real_t kernel_2[] = {
-0.004787502038587846, -0.03530651651889012, 1.36487656396916, 0.8152953274758089, -0.541485645546622, -1.29811358544243, 1.328804311620081, -1.059735551190643, -0.14194613498065192, -0.15806989029921298,
0.007748098045491961, 0.3069967402600267, 0.2546418470437638, 0.824253529444752, 0.7634029482803936, 1.542536335923565, 0.8912592310144399, -0.44373575419897066, -1.1694094270802573, -1.1755683920244993,
8.581970804333937e-05, -0.012453503488723365, 0.6680629556278115, -1.7723777325991625, 0.5871835744274371, -0.7177617580999361, -0.04045290018527254, 2.1694454515337434, 0.5881956587514026, 0.5130583417986132,
-0.002639970867015553, 0.1952516316657348, 1.8621819502972348, -1.4237924419540486, 0.09131400261987438, -0.286031578015949, 0.835648550577568, 2.0882223236162423, -0.2741816257530371, -0.9680260456751383,
-0.13906888030025114, 0.23805193083664752, -0.045683767607622654, -0.09554434710727319, 0.0796081208591166, -0.10955255293111305, 0.09789955607735734, -0.1732848652970949, 0.05830049599209409, -0.02266625551572137,
-0.00042072569369583634, 0.10623933636466154, -0.6128063726438862, 0.4570013415182654, -0.8653492678054427, -0.40270613073839145, -0.3349447536303025, -0.01281560181128166, 0.9878041040962152, 0.5963123654573992,
-0.00027560035576065946, 0.15900640393236565, 0.32520984832261063, -1.338572854286834, 2.2661063795792997, -0.31614055611950087, 0.2526018883718348, 2.1455236197102585, -1.767163917163015, 1.0492845382771572,
0.010380830878819873, 0.46837175839258083, 0.7727161844052947, -1.1366042394558231, -0.8941173085982739, -1.3687648108144173, -0.029027367920134085, 0.7003787344354386, 1.3161282643457757, -0.2042843954221849,
0.005943714508564355, -0.06622680564049804, 1.2196990280429454, 0.31083107555624706, -1.0127607301116726, -0.4707847931006812, 0.9533220233283242, -0.8124124696083658, -3.0994565590552687, 0.13007934573531535,
0.007886153723977513, 0.4325188554929983, -1.7098548025641824, 0.5020026062396667, 0.9923939603057622, 2.0133641513964906, -0.319500635663907, -0.017507479100912122, -0.3386106276223853, 0.6521885722877524,

};
const real_t bias_2[] = {
0.5627577730583004,
-0.48872690358674004,
-0.2527525099047235,
-0.4121838539530452,
0.038602097659305674,
0.5909637778151332,
-0.05980981326682568,
0.2679511604244425,
0.44919030082972083,
0.034429287798613234,

};
const real_t kernel_3[] = {
-0.5421501150698087, 0.3942293024115342, 0.41187665408172075, 0.45314875884106026, -9.930430261614876e-05, 1.2007539200224382, -2.0444780772336446, 0.8189861033021765, -1.0426277199773861, -0.7847371225303801,
-1.2482270803689175, -0.495236364379755, 0.6457076270919762, 1.9939766878919822, -0.003515749536913108, -0.41511472209019634, 0.9700945342694883, 0.22182419015380814, -0.03944210405809333, -0.47885450214723485,
0.13336338982222135, -2.1916684434621643, 0.5892318024510853, -1.3715004029827824, -0.0028874031976642064, 0.8104574895952874, 0.1452389626467995, 1.1149786574530711, 0.6846838292069201, 0.31912125853788004,
1.5616227610625915, -0.9461156308356782, -1.62566131604214, -1.4622497081947603, -0.001053831123351708, 0.9564556584052973, -0.19891193633821105, 0.32284823306932814, 0.41731071281731524, -0.009469647343632816,
1.0483860154177114, 2.1635962923189687, -1.1455977618670619, -1.1372477422239773, -0.00254584691238132, -0.08300363680929242, -0.2680286080244592, -0.5155463562232807, 0.1280584046664814, 0.047239593091005755,
-0.4612977826813069, -0.6020265116868111, -0.17039718512265764, -0.45499501592478275, 0.00036094105862078367, 0.31909074610412486, 1.403287802556456, 0.3009546361846236, -0.8504976169406342, 0.26803418126120737,
-1.0208454608275437, -0.6423753311953757, 0.3617517532171581, 0.8271238708681159, -0.0022300115143519305, 0.21386226855283622, 0.7973553200652593, 0.5187685061163915, -1.632244187369629, 0.031976033267200256,
-1.4504743787468886, 0.6002606798992008, 0.2610240929730441, 0.815877549841115, -0.0010924899345057108, 0.0997326848944374, -0.17867076071900562, -0.5227433269295234, -1.8766521288261222, -0.16430178745324628,
1.3274999488084969, 0.6864841665807689, -0.5575152960758748, 0.6178665413318846, -0.0005454474429286967, -1.0967853150616307, -0.5630361655581629, 0.11985367963382366, -0.006148392962625928, -1.2151815986125343,
-1.5122104734732118, 0.5801783022041671, 0.531131269312223, -0.6310840410706362, -0.0003788740181869868, -0.7081142831199237, 0.769094806177866, -1.4249882163386667, 1.0655582860748714, 1.7928335650265104,

};
const real_t bias_3[] = {
0.2311594959504119,
0.08398442240522032,
0.3819568036121554,
0.4303527494585797,
0.03742722554511992,
-0.3917926469271262,
-0.5517324763312288,
0.20398950293040144,
-0.2307203354360904,
-0.3265152905235653,

};
const real_t kernel_4[] = {
1.2516576787565934, -0.7503981198017061, 0.13393917229574998, -1.459053652773607, -0.3776207557318401, 0.5522195191931459, 0.5091291698747137, -0.4375506785674785, -0.5418763000601814, -0.9817176536200288,
2.450721592676728, -1.4192692641400475, -0.32536724125575334, 1.6491061746930635, 0.8742788749603102, 0.7678298514701611, 1.5507340556493048, -1.2312641525800399, -0.9241107468737739, 0.8920137404407312,
1.5847074519477982, 0.004733936377913865, 0.9481740588911726, -0.13484577816731647, 0.14664893551941816, -1.1219057899294536, -1.50409514102172, -1.3293794385658224, 0.35868465857532883, -0.4434024120256533,
1.569157667878315, 1.4683074888970609, -0.34417006538188866, 0.5693189438482723, -0.275401726819843, 0.06410868953150739, 0.273555864697775, 0.4212211444159003, -0.37538685115127485, -0.37079573020387874,
-0.702829780960209, -0.6292976900823649, -0.15849846603872503, -1.8081140460361906, -0.9397672970169796, 0.23773709684371402, -0.9740135559486138, 0.0622417110655985, 2.089430011367084, 0.8211672717166978,
-0.6867688579782131, 0.42369507287928265, 0.7872732555494641, 0.3648471175991821, -0.7967704161202342, 1.1552619463368603, 1.0476435829480357, -0.002861714275582975, 1.364185346719426, 1.6081621625825113,
2.352913928512788, -0.26566149458979965, -0.24888194843030448, 0.7572583505621626, 0.12433816749437551, -0.20236608364702297, 1.0619130266395875, 1.8957390602562239, 0.5466727430471651, -1.7665505720777044,
-0.26763748822182165, -0.5535324767998774, 1.4410368464624814, 1.3142479119438168, 0.4523317231447522, 0.785110167580751, 0.539119338156829, 0.1267814640038443, -2.061551294945591, 1.4924772441804557,
-0.7668229375727641, 2.086329447169973, 0.39254379805195183, 0.05486089479354624, -3.0717410767617963, 0.5694450397499684, 0.2975727887689478, 0.5001655062724818, -0.11230743493996403, 0.016971642119218,
0.02502795691562504, -0.7312853616592007, -1.1224865890908806, -0.020556020158829905, -0.19629979610707554, -0.24345034194404022, 0.0769368841530958, -0.4632598871918654, 1.8991708406623842, 0.9439369212649156,

};
const real_t bias_4[] = {
0.9319409633641289,
-1.1507889901369204,
0.8207359333055732,
0.4010946229063055,
-0.049749292810566066,
-0.5669664180475688,
0.12356262794033308,
-0.4939630237405056,
-0.45849964012571,
-0.04057110056467867,

};
const real_t kernel_5[] = {
-0.2658103140074483, 1.0892668702322899, 0.5377005974021051, 1.2600880728855286, -0.08603598202973951, 0.033188868478521184, -0.30949099050236434, 0.556858561175175, -0.040941265225303045, 0.27441273439362723,
1.3286678432853203, -1.0458992332863575, 2.1839411203776167, 2.5928459347573454, -0.7664016164570706, -0.6059341831745246, 2.3426029317116432, -0.49038115243423963, -0.33346290411801843, -0.09856481691846458,
-0.8614137104190707, -0.3418835207104845, -0.7381293464864237, -1.1417357645899433, 0.1425131193996407, -0.22063212463714663, 0.08627048441392042, -0.9559404204875448, 0.6069747291682484, 1.9631864055472459,
-1.1948200916486749, 1.3072925379904712, -0.5941234937969821, 1.175701399718747, -0.28872569406565257, -1.34231397740767, 0.533929537797229, -0.700304720065738, -0.608400630440405, -1.3116302744704893,
1.1264930432122837, 0.44807729203412766, -0.03836749247438436, -0.07936884317363305, 0.6363581911825644, -0.23728115298588748, 0.14297247204414418, -0.749928905787203, -0.4376072796196615, 1.8499682192599254,
-0.14501508767474705, 0.17617156485572857, -1.1919631958671888, -0.06994948556646254, -0.2606141223987131, -0.8123323558360575, 0.3408581205227928, 3.888602048261394, -0.8995916508988968, 1.1560421820193167,
-0.40338455189753303, -0.019372295432643617, 1.8821365965387356, 0.5946345034097219, -0.5946181944538727, -0.05000876611645419, 1.4119447221507935, 0.690192551037619, -0.15572057783490656, 0.7083564993326988,
0.8699615955656631, -0.1562372752070134, 2.324626484164797, 0.13208771423781362, 0.1357023850433954, 0.2319787197188015, -0.39583827997425913, -0.25549789450028065, -1.4935100237922923, -0.356962765579956,
-1.5413826811328402, -0.8009598136374524, -1.9139179578009686, -1.5034525368384024, -1.1210136496459402, 2.0566834312998026, -2.1877652000334327, 0.363176367537197, 0.9574549016590711, 0.026808274968320688,
1.507453107140238, 0.14301805379255667, -0.4856596023522909, 0.23684327208156306, -0.21021972511562778, 0.8416526864152727, 1.017601161760971, -1.0611716072129238, 0.9761855609435329, 0.43692196336990924,

};
const real_t bias_5[] = {
0.37179345302838057,
0.002606881557296046,
0.13101852876843226,
-0.8516488400026757,
-0.4861632162314824,
-0.2689092528266641,
0.874811861452287,
-0.6540822974804524,
-1.1890873047594637,
-0.965464145587874,

};
const real_t kernel_6[] = {
-0.9429513722548456, -0.9060238894163347, -0.3974738340478914, 0.7444666533830737, 0.7707760953753544, -1.1204875867491468, -1.2063813626665387, -0.6216523723861763, 0.7431470002614392, -0.533684413052623,
-1.3721909016960885, 0.09923453839071411, -0.3387566786977992, 0.4831691810483774, -0.6044208748725808, -0.07342673260215477, -0.8787082279396302, 0.6477977635921002, -0.10172897847339052, 0.7162747419759747,
0.026927332745366794, 0.44126536127855165, 0.39201856319342115, 1.8739400601531249, 0.35258432537702544, -0.6906889675873292, -0.9273586075850707, 0.18614312079856382, 0.5390153643663569, -0.08040529593542735,
0.4357311097939722, -0.8703920852218759, -0.04305114470153288, -0.3449065491489337, 0.1967817244595063, 1.2119718516455147, -0.40720970790807764, 0.3003375838066934, 0.022483075174661263, -0.4771610673539003,
-0.10298758879313956, 0.511022240536685, 0.4339882718283719, 1.1369357120744146, 0.6854832708926102, -1.0399488382720306, 1.129854514339223, -0.13109033934610037, -0.5838562221026076, 0.37675029250242614,
0.7612751469815829, 0.41553861935893743, -2.315943482426494, -0.4020857470596505, -0.7145736544261686, -0.7949384960752361, -0.9543409024530464, -1.7062400279876053, -1.6122324302682638, -0.36160829508193765,
-0.003749843150693263, -0.0004393049209451356, -0.008367116929831213, 0.007016710381534119, 0.0035336052741628734, 0.001727047396576939, -0.0035592332255627557, 0.014819350173337981, 0.015232759590834083, 0.006154875630873828,
1.1031080744200283, -0.12661266327645934, -0.36532546566711194, 0.8810569880269338, -0.7483813748083549, 0.21342302828380658, 0.5891466845216978, -0.5779342171952929, -0.4052002703023273, 0.6737376891899814,
0.0011655698039162899, -0.00688310459039505, 0.004252961515369099, -0.008687481510462962, -9.761882778685779e-05, -0.01176638582357863, 0.006523315544958983, -0.007283056121866577, -0.001170340638831822, 0.0003246446588369401,
0.34778402700423505, -0.213778638189481, -0.471884303860528, 0.888764864414616, 0.019400159437514396, 0.7281943222623034, 0.3212477350918692, -0.045630991498772346, 0.7825852942339174, 0.927818226328093,

};
const real_t bias_6[] = {
-0.5106545318198737,
0.702528284340516,
-0.6168348321441689,
0.8923726003589939,
-0.005017404873555582,
-0.23089963394312532,
-0.0023669138786946197,
0.45919867848168555,
-0.001591705562028552,
-0.2996602233363052,

};
const real_t kernel_7[] = {
0.06998377875882132, -0.0575804862494136, -0.09791959169736973, 0.5722917484930119, 0.13727094765436554, 0.051398859419692564, -0.00026546769305964193, -0.20732829023043195, 0.0009606915344444696, -0.07360987481997149,

};
const real_t bias_7[] = {
0.013002501254892124,

};

const real_t I[] = {
1.0, 0.0, 0.0, 0.0, 0.0,
0.0, 1.0, 0.0, 0.0, 0.0,
0.0, 0.0, 1.0, 0.0, 0.0,
0.0, 0.0, 0.0, 1.0, 0.0,
0.0, 0.0, 0.0, 0.0, 1.0,

};

const real_t Q[] = {
0.001, 0.0, 0.0, 0.0, 0.0,
0.0, 0.001, 0.0, 0.0, 0.0,
0.0, 0.0, 0.05, 0.0, 0.0,
0.0, 0.0, 0.0, 0.005, 0.0,
0.0, 0.0, 0.0, 0.0, 1.0,

};

const real_t R[] = {
0.01, 0.0,
0.0, 0.01,

};

struct edgeAI_dnn dnn = {dif_inv_in, low_in, low_out, dif_out, kernel_1, bias_1, kernel_2, bias_2, kernel_3, bias_3, kernel_4, bias_4, kernel_5, bias_5, kernel_6, bias_6, kernel_7, bias_7};

real_t P[] = {
0.01, 0.0, 0.0, 0.0, 0.0,
0.0, 0.01, 0.0, 0.0, 0.0,
0.0, 0.0, 0.01, 0.0, 0.0,
0.0, 0.0, 0.0, 0.1, 0.0,
0.0, 0.0, 0.0, 0.0, 0.2,

};

real_t F[25];

real_t H[] = {
1.0, 0.0, 0.0, 0.0, 0.0,
0.0, 1.0, 0.0, 0.0, 0.0,

};

real_t HT[] = {
1.0, 0.0,
0.0, 1.0,
0.0, 0.0,
0.0, 0.0,
0.0, 0.0,

};

real_t x_hat[5];

real_t y[2];

struct edgeAI_ekf ekf = {I, Q, R, P, F, H, HT, x_hat, y};

real_t in[SIZE_INPUT];
real_t in_scaled[SIZE_INPUT];
real_t out[SIZE_OUTPUT];
real_t out_scaled[SIZE_OUTPUT];

struct edgeAI_ctl ctl = {&dnn, &ekf, in, in_scaled, out, out_scaled};
